<?xml version="1.0"?>
<opencv_storage>
<stage1>
  <maxWeakCount>8</maxWeakCount>
  <stageThreshold>-9.7040158510208130e-01</stageThreshold>
  <weakClassifiers>
    <_>
      <internalNodes>
        0 -1 71481 3.3038696274161339e-03</internalNodes>
      <leafValues>
        -5.9735971689224243e-01 9.1878169775009155e-01</leafValues></_>
    <_>
      <internalNodes>
        0 -1 123550 -4.1276369302067906e-05</internalNodes>
      <leafValues>
        -8.9524805545806885e-01 5.3127413988113403e-01</leafValues></_>
    <_>
      <internalNodes>
        0 -1 61276 4.8913415521383286e-03</internalNodes>
      <leafValues>
        -5.0217765569686890e-01 9.3831276893615723e-01</leafValues></_>
    <_>
      <internalNodes>
        0 -1 9225 -9.3865441158413887e-03</internalNodes>
      <leafValues>
        4.9466317892074585e-01 -9.5169264078140259e-01</leafValues></_>
    <_>
      <internalNodes>
        0 -1 53719 -2.2717185318470001e-02</internalNodes>
      <leafValues>
        9.8869270086288452e-01 -4.6104454994201660e-01</leafValues></_>
    <_>
      <internalNodes>
        0 -1 62955 -5.6277438998222351e-03</internalNodes>
      <leafValues>
        9.9629616737365723e-01 -4.8424109816551208e-01</leafValues></_>
    <_>
      <internalNodes>
        0 -1 93697 1.7800068235374056e-05</internalNodes>
      <leafValues>
        5.3546094894409180e-01 -9.6659266948699951e-01</leafValues></_>
    <_>
      <internalNodes>
        0 -1 79201 5.6823831982910633e-03</internalNodes>
      <leafValues>
        -5.4099190235137939e-01 9.7881418466567993e-01</leafValues></_></weakClassifiers></stage1>
</opencv_storage>
