<?xml version="1.0"?>
<opencv_storage>
<stage2>
  <maxWeakCount>8</maxWeakCount>
  <stageThreshold>-5.0622541457414627e-02</stageThreshold>
  <weakClassifiers>
    <_>
      <internalNodes>
        0 -1 53715 -5.8276588097214699e-03</internalNodes>
      <leafValues>
        9.3678158521652222e-01 -5.0000000000000000e-01</leafValues></_>
    <_>
      <internalNodes>
        0 -1 74184 9.5799025148153305e-03</internalNodes>
      <leafValues>
        5.1263678073883057e-01 -9.7941094636917114e-01</leafValues></_>
    <_>
      <internalNodes>
        0 -1 25718 1.7425850033760071e-02</internalNodes>
      <leafValues>
        4.0986657142639160e-01 -9.1140377521514893e-01</leafValues></_>
    <_>
      <internalNodes>
        0 -1 93216 4.2972844094038010e-03</internalNodes>
      <leafValues>
        -5.2017885446548462e-01 8.2395052909851074e-01</leafValues></_>
    <_>
      <internalNodes>
        0 -1 774 7.5849620625376701e-03</internalNodes>
      <leafValues>
        -9.0703886747360229e-01 5.0694704055786133e-01</leafValues></_>
    <_>
      <internalNodes>
        0 -1 103371 -2.5742962956428528e-02</internalNodes>
      <leafValues>
        9.6568119525909424e-01 -5.5927848815917969e-01</leafValues></_>
    <_>
      <internalNodes>
        0 -1 108812 -6.4774518832564354e-03</internalNodes>
      <leafValues>
        9.9823284149169922e-01 -4.2773056030273438e-01</leafValues></_>
    <_>
      <internalNodes>
        0 -1 66211 2.8531976044178009e-02</internalNodes>
      <leafValues>
        5.2711498737335205e-01 -9.7265589237213135e-01</leafValues></_></weakClassifiers></stage2>
</opencv_storage>
