<?xml version="1.0"?>
<opencv_storage>
<cascade>
  <stageType>BOOST</stageType>
  <featureType>HAAR</featureType>
  <height>20</height>
  <width>20</width>
  <stageParams>
    <boostType>GAB</boostType>
    <minHitRate>9.9900001287460327e-01</minHitRate>
    <maxFalseAlarm>5.0000000745058060e-02</maxFalseAlarm>
    <weightTrimRate>9.4999999999999996e-01</weightTrimRate>
    <maxDepth>1</maxDepth>
    <maxWeakCount>100</maxWeakCount></stageParams>
  <featureParams>
    <maxCatCount>0</maxCatCount>
    <featSize>1</featSize>
    <mode>ALL</mode></featureParams>
  <stageNum>3</stageNum>
  <stages>
    <!-- stage 0 -->
    <_>
      <maxWeakCount>5</maxWeakCount>
      <stageThreshold>4.6264997124671936e-01</stageThreshold>
      <weakClassifiers>
        <_>
          <internalNodes>
            0 -1 8 1.3402393087744713e-02</internalNodes>
          <leafValues>
            -6.8555760383605957e-01 8.2781457901000977e-01</leafValues></_>
        <_>
          <internalNodes>
            0 -1 3 4.3010935187339783e-03</internalNodes>
          <leafValues>
            -6.0788810253143311e-01 9.3256968259811401e-01</leafValues></_>
        <_>
          <internalNodes>
            0 -1 15 -1.5134440734982491e-02</internalNodes>
          <leafValues>
            7.4504154920578003e-01 -7.6914620399475098e-01</leafValues></_>
        <_>
          <internalNodes>
            0 -1 0 1.2609576806426048e-02</internalNodes>
          <leafValues>
            -1. 4.7375923395156860e-01</leafValues></_>
        <_>
          <internalNodes>
            0 -1 9 9.3157123774290085e-04</internalNodes>
          <leafValues>
            -8.2927221059799194e-01 5.3811043500900269e-01</leafValues></_></weakClassifiers></_>
    <!-- stage 1 -->
    <_>
      <maxWeakCount>6</maxWeakCount>
      <stageThreshold>-1.1522392928600311e-01</stageThreshold>
      <weakClassifiers>
        <_>
          <internalNodes>
            0 -1 5 4.4099199585616589e-03</internalNodes>
          <leafValues>
            -6.1513155698776245e-01 9.5408165454864502e-01</leafValues></_>
        <_>
          <internalNodes>
            0 -1 10 2.1605403162539005e-03</internalNodes>
          <leafValues>
            -6.7487174272537231e-01 8.6149722337722778e-01</leafValues></_>
        <_>
          <internalNodes>
            0 -1 1 2.4383760988712311e-02</internalNodes>
          <leafValues>
            5.4980969429016113e-01 -9.7438055276870728e-01</leafValues></_>
        <_>
          <internalNodes>
            0 -1 16 -2.4882841898943298e-05</internalNodes>
          <leafValues>
            -9.9824929237365723e-01 4.2345276474952698e-01</leafValues></_>
        <_>
          <internalNodes>
            0 -1 2 -5.0008594989776611e-03</internalNodes>
          <leafValues>
            9.6066570281982422e-01 -5.2241587638854980e-01</leafValues></_>
        <_>
          <internalNodes>
            0 -1 6 2.4064593017101288e-03</internalNodes>
          <leafValues>
            -7.1087998151779175e-01 7.2393280267715454e-01</leafValues></_></weakClassifiers></_>
    <!-- stage 2 -->
    <_>
      <maxWeakCount>7</maxWeakCount>
      <stageThreshold>-2.1885055303573608e-01</stageThreshold>
      <weakClassifiers>
        <_>
          <internalNodes>
            0 -1 12 3.9427145384252071e-03</internalNodes>
          <leafValues>
            -5.8347105979919434e-01 8.9367085695266724e-01</leafValues></_>
        <_>
          <internalNodes>
            0 -1 13 4.4261114671826363e-03</internalNodes>
          <leafValues>
            -4.6048879623413086e-01 9.3080151081085205e-01</leafValues></_>
        <_>
          <internalNodes>
            0 -1 14 9.5078200101852417e-03</internalNodes>
          <leafValues>
            -8.6769276857376099e-01 5.5498385429382324e-01</leafValues></_>
        <_>
          <internalNodes>
            0 -1 7 3.8697978015989065e-03</internalNodes>
          <leafValues>
            -5.3954070806503296e-01 8.3078193664550781e-01</leafValues></_>
        <_>
          <internalNodes>
            0 -1 11 -6.0289958491921425e-03</internalNodes>
          <leafValues>
            9.7603994607925415e-01 -5.2603518962860107e-01</leafValues></_>
        <_>
          <internalNodes>
            0 -1 16 2.0276969735277817e-05</internalNodes>
          <leafValues>
            5.2328604459762573e-01 -1.</leafValues></_>
        <_>
          <internalNodes>
            0 -1 4 -2.5453492999076843e-02</internalNodes>
          <leafValues>
            9.6605545282363892e-01 -5.7887494564056396e-01</leafValues></_></weakClassifiers></_></stages>
  <features>
    <_>
      <rects>
        <_>
          0 15 20 5 -1.</_>
        <_>
          5 15 10 5 2.</_></rects>
      <tilted>0</tilted></_>
    <_>
      <rects>
        <_>
          3 6 14 6 -1.</_>
        <_>
          10 6 7 6 2.</_></rects>
      <tilted>0</tilted></_>
    <_>
      <rects>
        <_>
          5 10 1 3 -1.</_>
        <_>
          5 11 1 1 3.</_></rects>
      <tilted>0</tilted></_>
    <_>
      <rects>
        <_>
          6 8 3 1 -1.</_>
        <_>
          7 8 1 1 3.</_></rects>
      <tilted>0</tilted></_>
    <_>
      <rects>
        <_>
          6 10 12 2 -1.</_>
        <_>
          6 10 6 1 2.</_>
        <_>
          12 11 6 1 2.</_></rects>
      <tilted>0</tilted></_>
    <_>
      <rects>
        <_>
          7 6 3 1 -1.</_>
        <_>
          8 6 1 1 3.</_></rects>
      <tilted>0</tilted></_>
    <_>
      <rects>
        <_>
          7 10 4 2 -1.</_>
        <_>
          7 10 2 1 2.</_>
        <_>
          9 11 2 1 2.</_></rects>
      <tilted>0</tilted></_>
    <_>
      <rects>
        <_>
          7 13 3 1 -1.</_>
        <_>
          8 13 1 1 3.</_></rects>
      <tilted>0</tilted></_>
    <_>
      <rects>
        <_>
          9 7 3 3 -1.</_>
        <_>
          10 8 1 1 9.</_></rects>
      <tilted>0</tilted></_>
    <_>
      <rects>
        <_>
          9 9 6 2 -1.</_>
        <_>
          12 9 3 2 2.</_></rects>
      <tilted>0</tilted></_>
    <_>
      <rects>
        <_>
          9 10 1 2 -1.</_>
        <_>
          9 11 1 1 2.</_></rects>
      <tilted>0</tilted></_>
    <_>
      <rects>
        <_>
          9 13 3 1 -1.</_>
        <_>
          10 13 1 1 3.</_></rects>
      <tilted>0</tilted></_>
    <_>
      <rects>
        <_>
          10 5 3 1 -1.</_>
        <_>
          11 5 1 1 3.</_></rects>
      <tilted>0</tilted></_>
    <_>
      <rects>
        <_>
          11 11 3 1 -1.</_>
        <_>
          12 11 1 1 3.</_></rects>
      <tilted>0</tilted></_>
    <_>
      <rects>
        <_>
          13 0 7 6 -1.</_>
        <_>
          13 3 7 3 2.</_></rects>
      <tilted>0</tilted></_>
    <_>
      <rects>
        <_>
          16 1 4 18 -1.</_>
        <_>
          18 1 2 18 2.</_></rects>
      <tilted>0</tilted></_>
    <_>
      <rects>
        <_>
          18 19 2 1 -1.</_>
        <_>
          19 19 1 1 2.</_></rects>
      <tilted>0</tilted></_></features></cascade>
</opencv_storage>
