<?xml version="1.0"?>
<opencv_storage>
<stage0>
  <maxWeakCount>5</maxWeakCount>
  <stageThreshold>4.6264997124671936e-01</stageThreshold>
  <weakClassifiers>
    <_>
      <internalNodes>
        0 -1 84176 1.3402393087744713e-02</internalNodes>
      <leafValues>
        -6.8555760383605957e-01 8.2781457901000977e-01</leafValues></_>
    <_>
      <internalNodes>
        0 -1 61276 4.3010935187339783e-03</internalNodes>
      <leafValues>
        -6.0788810253143311e-01 9.3256968259811401e-01</leafValues></_>
    <_>
      <internalNodes>
        0 -1 118921 -1.5134440734982491e-02</internalNodes>
      <leafValues>
        7.4504154920578003e-01 -7.6914620399475098e-01</leafValues></_>
    <_>
      <internalNodes>
        0 -1 9444 1.2609576806426048e-02</internalNodes>
      <leafValues>
        -1. 4.7375923395156860e-01</leafValues></_>
    <_>
      <internalNodes>
        0 -1 85211 9.3157123774290085e-04</internalNodes>
      <leafValues>
        -8.2927221059799194e-01 5.3811043500900269e-01</leafValues></_></weakClassifiers></stage0>
</opencv_storage>
