<?xml version="1.0"?>
<opencv_storage>
<stage2>
  <maxWeakCount>7</maxWeakCount>
  <stageThreshold>-2.1885055303573608e-01</stageThreshold>
  <weakClassifiers>
    <_>
      <internalNodes>
        0 -1 90021 3.9427145384252071e-03</internalNodes>
      <leafValues>
        -5.8347105979919434e-01 8.9367085695266724e-01</leafValues></_>
    <_>
      <internalNodes>
        0 -1 98819 4.4261114671826363e-03</internalNodes>
      <leafValues>
        -4.6048879623413086e-01 9.3080151081085205e-01</leafValues></_>
    <_>
      <internalNodes>
        0 -1 106058 9.5078200101852417e-03</internalNodes>
      <leafValues>
        -8.6769276857376099e-01 5.5498385429382324e-01</leafValues></_>
    <_>
      <internalNodes>
        0 -1 71252 3.8697978015989065e-03</internalNodes>
      <leafValues>
        -5.3954070806503296e-01 8.3078193664550781e-01</leafValues></_>
    <_>
      <internalNodes>
        0 -1 86239 -6.0289958491921425e-03</internalNodes>
      <leafValues>
        9.7603994607925415e-01 -5.2603518962860107e-01</leafValues></_>
    <_>
      <internalNodes>
        0 -1 124803 2.0276969735277817e-05</internalNodes>
      <leafValues>
        5.2328604459762573e-01 -1.</leafValues></_>
    <_>
      <internalNodes>
        0 -1 62479 -2.5453492999076843e-02</internalNodes>
      <leafValues>
        9.6605545282363892e-01 -5.7887494564056396e-01</leafValues></_></weakClassifiers></stage2>
</opencv_storage>
